#ifndef __THYROID_TRAINED__
#define __THYROID_TRAINED__


// FANN_FLO_2.1

#define NUM_LAYERS                           3
#define LEARNING_RATE                        0.700000
#define CONNECTION_RATE                      1.000000
#define NETWORK_TYPE                         0
#define LEARNING_MOMENTUM                    0.300000
#define TRAINING_ALGORITHM                   0
#define TRAIN_ERROR_FUNCTION                 1
#define TRAIN_STOP_FUNCTION                  0
#define CASCADE_OUTPUT_CHANGE_FRACTION       0.010000
#define QUICKPROP_DECAY                      -0.000100
#define QUICKPROP_MU                         1.750000
#define RPROP_INCREASE_FACTOR                1.200000
#define RPROP_DECREASE_FACTOR                0.500000
#define RPROP_DELTA_MIN                      0.000000
#define RPROP_DELTA_MAX                      50.000000
#define RPROP_DELTA_ZERO                     0.100000
#define CASCADE_OUTPUT_STAGNATION_EPOCHS     12
#define CASCADE_CANDIDATE_CHANGE_FRACTION    0.010000
#define CASCADE_CANDIDATE_STAGNATION_EPOCHS  12
#define CASCADE_MAX_OUT_EPOCHS               150
#define CASCADE_MIN_OUT_EPOCHS               50
#define CASCADE_MAX_CAND_EPOCHS              150
#define CASCADE_MIN_CAND_EPOCHS              50
#define CASCADE_NUM_CANDIDATE_GROUPS         2
#define BIT_FAIL_LIMIT                       3.49999994039535522461e-01
#define CASCADE_CANDIDATE_LIMIT              1.00000000000000000000e+03
#define CASCADE_WEIGHT_MULTIPLIER            4.00000005960464477539e-01
#define CASCADE_ACTIVATION_FUNCTIONS_COUNT   10
#define CASCADE_ACTIVATION_FUNCTION_1        3
#define CASCADE_ACTIVATION_FUNCTION_2        5
#define CASCADE_ACTIVATION_FUNCTION_3        7
#define CASCADE_ACTIVATION_FUNCTION_4        8
#define CASCADE_ACTIVATION_FUNCTION_5        10
#define CASCADE_ACTIVATION_FUNCTION_6        11
#define CASCADE_ACTIVATION_FUNCTION_7        14
#define CASCADE_ACTIVATION_FUNCTION_8        15
#define CASCADE_ACTIVATION_FUNCTION_9        16
#define CASCADE_ACTIVATION_FUNCTION_10       17
#define CASCADE_ACTIVATION_STEEPNESSES_COUNT 4
#define CASCADE_ACTIVATION_STEEPNESS_1       2.50000000000000000000e-01
#define CASCADE_ACTIVATION_STEEPNESS_2       5.00000000000000000000e-01
#define CASCADE_ACTIVATION_STEEPNESS_3       7.50000000000000000000e-01
#define CASCADE_ACTIVATION_STEEPNESS_4       1.00000000000000000000e+00
#define LAYER_SIZE_1                         22
#define LAYER_SIZE_2                         6
#define LAYER_SIZE_3                         4
#define SCALE_INCLUDED                       0

fann_type neurons[][3] = {
    {0, 0, 0.00000000000000000000e+00},
    {0, 0, 0.00000000000000000000e+00},
    {0, 0, 0.00000000000000000000e+00},
    {0, 0, 0.00000000000000000000e+00},
    {0, 0, 0.00000000000000000000e+00},
    {0, 0, 0.00000000000000000000e+00},
    {0, 0, 0.00000000000000000000e+00},
    {0, 0, 0.00000000000000000000e+00},
    {0, 0, 0.00000000000000000000e+00},
    {0, 0, 0.00000000000000000000e+00},
    {0, 0, 0.00000000000000000000e+00},
    {0, 0, 0.00000000000000000000e+00},
    {0, 0, 0.00000000000000000000e+00},
    {0, 0, 0.00000000000000000000e+00},
    {0, 0, 0.00000000000000000000e+00},
    {0, 0, 0.00000000000000000000e+00},
    {0, 0, 0.00000000000000000000e+00},
    {0, 0, 0.00000000000000000000e+00},
    {0, 0, 0.00000000000000000000e+00},
    {0, 0, 0.00000000000000000000e+00},
    {0, 0, 0.00000000000000000000e+00},
    {0, 0, 0.00000000000000000000e+00},
    {22, 4, 5.00000000000000000000e-01},
    {22, 4, 5.00000000000000000000e-01},
    {22, 4, 5.00000000000000000000e-01},
    {22, 4, 5.00000000000000000000e-01},
    {22, 4, 5.00000000000000000000e-01},
    {0, 0, 0.00000000000000000000e+00},
    {6, 4, 5.00000000000000000000e-01},
    {6, 4, 5.00000000000000000000e-01},
    {6, 4, 5.00000000000000000000e-01},
    {0, 0, 0.00000000000000000000e+00} 
};

fann_type connections[][2] = {
    {0, 2.21029043197631835938e+00},
    {1, 2.29496687650680541992e-01},
    {2, 9.20476150512695312500e+00},
    {3, 6.03625535964965820312e-01},
    {4, 7.48650217056274414062e+00},
    {5, -1.90440452098846435547e+00},
    {6, 1.77283358573913574219e+00},
    {7, 8.11842823028564453125e+00},
    {8, 4.76205460727214813232e-02},
    {9, -6.84968471527099609375e-01},
    {10, 2.96387255191802978516e-01},
    {11, -3.42858612537384033203e-01},
    {12, 2.33612656593322753906e+00},
    {13, -3.13812464475631713867e-01},
    {14, 3.46578717231750488281e-01},
    {15, 1.47824037075042724609e+00},
    {16, -6.54554992675781250000e+02},
    {17, 6.02880287170410156250e+01},
    {18, -2.25302429199218750000e+01},
    {19, -5.90199232101440429688e+00},
    {20, 2.89993305206298828125e+01},
    {21, 1.62145507335662841797e+00},
    {0, 4.94446563720703125000e+00},
    {1, 6.05897784233093261719e-01},
    {2, -6.34995994567871093750e+01},
    {3, -2.29722409130772575736e-05},
    {4, -5.82803001403808593750e+01},
    {5, 2.46824002265930175781e+00},
    {6, 1.57574725151062011719e+00},
    {7, 4.48605079650878906250e+01},
    {8, -3.25893821716308593750e+01},
    {9, 8.79792630672454833984e-01},
    {10, -3.42198252677917480469e-01},
    {11, -6.36404693126678466797e-01},
    {12, 1.60096895694732666016e+00},
    {13, 2.06243872642517089844e+00},
    {14, 8.80050361156463623047e-02},
    {15, -3.65427923202514648438e+00},
    {16, -2.94784881591796875000e+02},
    {17, 1.23175668716430664062e+01},
    {18, 7.01808214187622070312e+00},
    {19, 5.53425827026367187500e+01},
    {20, -2.51704483032226562500e+01},
    {21, -6.23196029663085937500e+00},
    {0, -9.60550117492675781250e+00},
    {1, -9.43898022174835205078e-01},
    {2, 3.64480171203613281250e+01},
    {3, 1.69115304946899414062e+00},
    {4, -2.25288057327270507812e+00},
    {5, -2.92454898357391357422e-01},
    {6, 1.31260550022125244141e+00},
    {7, 3.00874805450439453125e+01},
    {8, -1.20676403045654296875e+01},
    {9, -2.13204002380371093750e+00},
    {10, 3.14587330818176269531e+00},
    {11, -8.86672306060791015625e+00},
    {12, 2.05220913887023925781e+00},
    {13, -1.20847547054290771484e+00},
    {14, 1.38885051012039184570e-01},
    {15, 7.37764656543731689453e-01},
    {16, -1.83074188232421875000e+02},
    {17, 2.05166168212890625000e+01},
    {18, 5.11249084472656250000e+01},
    {19, 5.21383018493652343750e+01},
    {20, 3.72357292175292968750e+01},
    {21, -1.07294216156005859375e+01},
    {0, -1.18487131595611572266e+00},
    {1, 6.03303551673889160156e-01},
    {2, 1.20962238311767578125e+00},
    {3, 1.90547251701354980469e+00},
    {4, 6.06827392578125000000e+01},
    {5, -7.69379317760467529297e-01},
    {6, 3.93202215433120727539e-01},
    {7, -1.28811159133911132812e+01},
    {8, 1.49152851104736328125e+01},
    {9, 1.34335350990295410156e+00},
    {10, 4.24732893705368041992e-01},
    {11, 4.61417770385742187500e+00},
    {12, 1.43477046489715576172e+00},
    {13, -1.75603544712066650391e+00},
    {14, 1.02105058729648590088e-01},
    {15, 4.86215972900390625000e+00},
    {16, -1.61354770660400390625e+01},
    {17, 5.49261169433593750000e+01},
    {18, 1.34826614379882812500e+02},
    {19, -2.67578105926513671875e+01},
    {20, 1.59299514770507812500e+02},
    {21, -1.49030475616455078125e+01},
    {0, -3.38762784004211425781e+00},
    {1, 4.36625808477401733398e-01},
    {2, 3.90943565368652343750e+01},
    {3, -1.95372390747070312500e+00},
    {4, 1.27620398998260498047e+00},
    {5, 2.91935682296752929688e+00},
    {6, 1.20496165752410888672e+00},
    {7, 1.00605220794677734375e+01},
    {8, 4.71819763183593750000e+01},
    {9, 1.41135931015014648438e+00},
    {10, -1.39418315887451171875e+01},
    {11, 1.38724012374877929688e+01},
    {12, 1.85079288482666015625e+00},
    {13, -2.55113029479980468750e+00},
    {14, 1.58714130520820617676e-01},
    {15, -2.85408234596252441406e+00},
    {16, -2.09088577270507812500e+02},
    {17, 2.09366092681884765625e+01},
    {18, -6.47619934082031250000e+01},
    {19, -4.79124145507812500000e+01},
    {20, 6.72755718231201171875e+00},
    {21, 9.37332153320312500000e+00},
    {22, -7.16490650177001953125e+00},
    {23, -3.43997955322265625000e+00},
    {24, -1.36485219001770019531e+00},
    {25, -7.19357490539550781250e+00},
    {26, 3.88354323804378509521e-02},
    {27, 4.06268453598022460938e+00},
    {22, -8.79109191894531250000e+00},
    {23, -4.97795629501342773438e+00},
    {24, -3.66768622398376464844e+00},
    {25, 1.20583848953247070312e+01},
    {26, -5.14414215087890625000e+00},
    {27, -5.39290046691894531250e+00},
    {22, 9.02935218811035156250e+00},
    {23, 5.56247663497924804688e+00},
    {24, 3.36757826805114746094e+00},
    {25, 2.54474186897277832031e+00},
    {26, 4.58200931549072265625e+00},
    {27, -9.18227386474609375000e+00} 
};


#endif // __THYROID_TRAINED__
